<?xml version="1.0"?>
<opencv_storage>
<cascade>
  <stageType>BOOST</stageType>
  <featureType>HAAR</featureType>
  <height>24</height>
  <width>24</width>
  <stageParams>
    <boostType>GAB</boostType>
    <minHitRate>9.9500000476837158e-01</minHitRate>
    <maxFalseAlarm>5.0000000000000000e-01</maxFalseAlarm>
    <weightTrimRate>9.4999999999999996e-01</weightTrimRate>
    <maxDepth>1</maxDepth>
    <maxWeakCount>100</maxWeakCount></stageParams>
  <featureParams>
    <maxCatCount>0</maxCatCount>
    <featSize>1</featSize>
    <mode>BASIC</mode></featureParams>
  <stageNum>24</stageNum>
  <stages>
    <!-- stage 0 -->
    <_>
      <maxWeakCount>4</maxWeakCount>
      <stageThreshold>-9.5849287509918213e-01</stageThreshold>
      <weakClassifiers>
        <_>
          <internalNodes>
            0 -1 107 -1.2735771015286446e-02</internalNodes>
          <leafValues>
            -7.5949364900588989e-01 8.3206105232238770e-01</leafValues></_>
        <_>
          <internalNodes>
            0 -1 155 -6.5384483896195889e-03</internalNodes>
          <leafValues>
            6.3414013385772705e-01 -5.7668960094451904e-01</leafValues></_>
        <_>
          <internalNodes>
            0 -1 64 5.8088824152946472e-03</internalNodes>
          <leafValues>
            -4.2432051897048950e-01 7.9148375988006592e-01</leafValues></_>
        <_>
          <internalNodes>
            0 -1 8 -2.0183440297842026e-02</internalNodes>
          <leafValues>
            8.4027028083801270e-01 -4.0881881117820740e-01</leafValues></_></weakClassifiers></_>
    <!-- stage 1 -->
    <_>
      <maxWeakCount>4</maxWeakCount>
      <stageThreshold>-6.8017673492431641e-01</stageThreshold>
      <weakClassifiers>
        <_>
          <internalNodes>
            0 -1 188 5.6720608845353127e-03</internalNodes>
          <leafValues>
            -4.3434342741966248e-01 8.2417583465576172e-01</leafValues></_>
        <_>
          <internalNodes>
            0 -1 49 -9.0083656832575798e-03</internalNodes>
          <leafValues>
            6.0146987438201904e-01 -4.5365855097770691e-01</leafValues></_>
        <_>
          <internalNodes>
            0 -1 36 -5.4359365254640579e-02</internalNodes>
          <leafValues>
            8.7500101327896118e-01 -2.8583064675331116e-01</leafValues></_>
        <_>
          <internalNodes>
            0 -1 44 -1.2410659343004227e-02</internalNodes>
          <leafValues>
            -5.6147253513336182e-01 5.2125650644302368e-01</leafValues></_></weakClassifiers></_>
    <!-- stage 2 -->
    <_>
      <maxWeakCount>6</maxWeakCount>
      <stageThreshold>-4.8151931166648865e-01</stageThreshold>
      <weakClassifiers>
        <_>
          <internalNodes>
            0 -1 170 -2.9461439698934555e-02</internalNodes>
          <leafValues>
            -8.6407768726348877e-01 4.1935482621192932e-01</leafValues></_>
        <_>
          <internalNodes>
            0 -1 110 4.5439284294843674e-02</internalNodes>
          <leafValues>
            -4.9806264042854309e-01 6.0062289237976074e-01</leafValues></_>
        <_>
          <internalNodes>
            0 -1 9 -2.2995175793766975e-02</internalNodes>
          <leafValues>
            6.6165161132812500e-01 -4.1304874420166016e-01</leafValues></_>
        <_>
          <internalNodes>
            0 -1 132 -4.9504316411912441e-03</internalNodes>
          <leafValues>
            -3.4171476960182190e-01 7.7425479888916016e-01</leafValues></_>
        <_>
          <internalNodes>
            0 -1 167 2.3941680788993835e-02</internalNodes>
          <leafValues>
            -2.7120468020439148e-01 8.1726092100143433e-01</leafValues></_>
        <_>
          <internalNodes>
            0 -1 142 -3.3338971436023712e-02</internalNodes>
          <leafValues>
            8.3188885450363159e-01 -2.4354514479637146e-01</leafValues></_></weakClassifiers></_>
    <!-- stage 3 -->
    <_>
      <maxWeakCount>5</maxWeakCount>
      <stageThreshold>-1.0457547903060913e+00</stageThreshold>
      <weakClassifiers>
        <_>
          <internalNodes>
            0 -1 108 -2.4323061108589172e-02</internalNodes>
          <leafValues>
            -8.7272727489471436e-01 4.7486034035682678e-01</leafValues></_>
        <_>
          <internalNodes>
            0 -1 187 5.7207653298974037e-03</internalNodes>
          <leafValues>
            -4.2796015739440918e-01 7.9331964254379272e-01</leafValues></_>
        <_>
          <internalNodes>
            0 -1 54 -2.8321184217929840e-03</internalNodes>
          <leafValues>
            -7.3230397701263428e-01 4.8253133893013000e-01</leafValues></_>
        <_>
          <internalNodes>
            0 -1 42 1.1138223111629486e-02</internalNodes>
          <leafValues>
            -4.4293254613876343e-01 5.5813705921173096e-01</leafValues></_>
        <_>
          <internalNodes>
            0 -1 32 -1.9866820424795151e-02</internalNodes>
          <leafValues>
            -9.9169635772705078e-01 2.1533380448818207e-01</leafValues></_></weakClassifiers></_>
    <!-- stage 4 -->
    <_>
      <maxWeakCount>6</maxWeakCount>
      <stageThreshold>-7.8224349021911621e-01</stageThreshold>
      <weakClassifiers>
        <_>
          <internalNodes>
            0 -1 29 -4.6019464731216431e-02</internalNodes>
          <leafValues>
            7.1171170473098755e-01 -5.0561797618865967e-01</leafValues></_>
        <_>
          <internalNodes>
            0 -1 77 4.5714471489191055e-03</internalNodes>
          <leafValues>
            -3.7437826395034790e-01 6.0023128986358643e-01</leafValues></_>
        <_>
          <internalNodes>
            0 -1 147 -5.1885522902011871e-02</internalNodes>
          <leafValues>
            -7.3597711324691772e-01 3.8498365879058838e-01</leafValues></_>
        <_>
          <internalNodes>
            0 -1 16 -2.5865819770842791e-03</internalNodes>
          <leafValues>
            7.6448899507522583e-01 -3.1623527407646179e-01</leafValues></_>
        <_>
          <internalNodes>
            0 -1 168 3.8277249783277512e-02</internalNodes>
          <leafValues>
            -2.6798993349075317e-01 7.8721040487289429e-01</leafValues></_>
        <_>
          <internalNodes>
            0 -1 151 7.0183887146413326e-04</internalNodes>
          <leafValues>
            3.6275473237037659e-01 -6.8882000446319580e-01</leafValues></_></weakClassifiers></_>
    <!-- stage 5 -->
    <_>
      <maxWeakCount>7</maxWeakCount>
      <stageThreshold>-7.0967733860015869e-01</stageThreshold>
      <weakClassifiers>
        <_>
          <internalNodes>
            0 -1 7 -6.2194000929594040e-03</internalNodes>
          <leafValues>
            7.6595747470855713e-01 -4.2564103007316589e-01</leafValues></_>
        <_>
          <internalNodes>
            0 -1 10 9.9367043003439903e-04</internalNodes>
          <leafValues>
            -3.9962491393089294e-01 6.2671703100204468e-01</leafValues></_>
        <_>
          <internalNodes>
            0 -1 163 -5.3262931760400534e-04</internalNodes>
          <leafValues>
            4.2552688717842102e-01 -5.0945842266082764e-01</leafValues></_>
        <_>
          <internalNodes>
            0 -1 180 1.1896179988980293e-02</internalNodes>
          <leafValues>
            -3.0817118287086487e-01 7.3031407594680786e-01</leafValues></_>
        <_>
          <internalNodes>
            0 -1 17 1.2061635497957468e-03</internalNodes>
          <leafValues>
            -1.9881851971149445e-01 9.3623596429824829e-01</leafValues></_>
        <_>
          <internalNodes>
            0 -1 111 -1.8051467486657202e-04</internalNodes>
          <leafValues>
            4.8764494061470032e-01 -4.7190484404563904e-01</leafValues></_>
        <_>
          <internalNodes>
            0 -1 103 -3.2639498822391033e-03</internalNodes>
          <leafValues>
            7.8289568424224854e-01 -2.9059350490570068e-01</leafValues></_></weakClassifiers></_>
    <!-- stage 6 -->
    <_>
      <maxWeakCount>7</maxWeakCount>
      <stageThreshold>-5.2976965904235840e-01</stageThreshold>
      <weakClassifiers>
        <_>
          <internalNodes>
            0 -1 79 4.4925827533006668e-03</internalNodes>
          <leafValues>
            -5.0303030014038086e-01 5.8064514398574829e-01</leafValues></_>
        <_>
          <internalNodes>
            0 -1 12 -7.0152203552424908e-03</internalNodes>
          <leafValues>
            7.0728451013565063e-01 -3.5463047027587891e-01</leafValues></_>
        <_>
          <internalNodes>
            0 -1 154 -1.4148270711302757e-02</internalNodes>
          <leafValues>
            6.9656115770339966e-01 -2.8552696108818054e-01</leafValues></_>
        <_>
          <internalNodes>
            0 -1 81 1.6147916903719306e-04</internalNodes>
          <leafValues>
            -3.1350272893905640e-01 6.5364968776702881e-01</leafValues></_>
        <_>
          <internalNodes>
            0 -1 41 -2.1166382357478142e-03</internalNodes>
          <leafValues>
            7.2305083274841309e-01 -2.9268410801887512e-01</leafValues></_>
        <_>
          <internalNodes>
            0 -1 149 1.4180626021698117e-04</internalNodes>
          <leafValues>
            -2.5912371277809143e-01 6.4615952968597412e-01</leafValues></_>
        <_>
          <internalNodes>
            0 -1 4 1.9135868642479181e-03</internalNodes>
          <leafValues>
            -3.2686832547187805e-01 5.7344537973403931e-01</leafValues></_></weakClassifiers></_>
    <!-- stage 7 -->
    <_>
      <maxWeakCount>7</maxWeakCount>
      <stageThreshold>-9.4521850347518921e-01</stageThreshold>
      <weakClassifiers>
        <_>
          <internalNodes>
            0 -1 173 4.0293978527188301e-03</internalNodes>
          <leafValues>
            -4.1379311680793762e-01 5.3043478727340698e-01</leafValues></_>
        <_>
          <internalNodes>
            0 -1 11 -3.9628548547625542e-03</internalNodes>
          <leafValues>
            6.7208701372146606e-01 -3.0234992504119873e-01</leafValues></_>
        <_>
          <internalNodes>
            0 -1 75 -1.5293994545936584e-01</internalNodes>
          <leafValues>
            -4.6313667297363281e-01 4.1227519512176514e-01</leafValues></_>
        <_>
          <internalNodes>
            0 -1 27 1.1143487063236535e-04</internalNodes>
          <leafValues>
            2.8697246313095093e-01 -6.3144600391387939e-01</leafValues></_>
        <_>
          <internalNodes>
            0 -1 51 -1.1162869632244110e-02</internalNodes>
          <leafValues>
            4.8129791021347046e-01 -3.9499425888061523e-01</leafValues></_>
        <_>
          <internalNodes>
            0 -1 95 -3.4487475641071796e-03</internalNodes>
          <leafValues>
            5.9118455648422241e-01 -2.6440149545669556e-01</leafValues></_>
        <_>
          <internalNodes>
            0 -1 115 -2.1956085693091154e-03</internalNodes>
          <leafValues>
            5.9306854009628296e-01 -2.4910157918930054e-01</leafValues></_></weakClassifiers></_>
    <!-- stage 8 -->
    <_>
      <maxWeakCount>8</maxWeakCount>
      <stageThreshold>-5.8489495515823364e-01</stageThreshold>
      <weakClassifiers>
        <_>
          <internalNodes>
            0 -1 78 8.2773398607969284e-03</internalNodes>
          <leafValues>
            -3.2994922995567322e-01 5.8695650100708008e-01</leafValues></_>
        <_>
          <internalNodes>
            0 -1 37 -5.2993497811257839e-03</internalNodes>
          <leafValues>
            5.3959184885025024e-01 -2.9413703083992004e-01</leafValues></_>
        <_>
          <internalNodes>
            0 -1 31 4.6843281015753746e-03</internalNodes>
          <leafValues>
            -1.9488976895809174e-01 8.8492256402969360e-01</leafValues></_>
        <_>
          <internalNodes>
            0 -1 190 4.7997562214732170e-03</internalNodes>
          <leafValues>
            -2.9105415940284729e-01 5.5552667379379272e-01</leafValues></_>
        <_>
          <internalNodes>
            0 -1 174 -3.4536734223365784e-02</internalNodes>
          <leafValues>
            -3.6695423722267151e-01 4.4583544135093689e-01</leafValues></_>
        <_>
          <internalNodes>
            0 -1 156 1.3978092465549707e-03</internalNodes>
          <leafValues>
            -3.3284100890159607e-01 5.6131631135940552e-01</leafValues></_>
        <_>
          <internalNodes>
            0 -1 85 4.2991060763597488e-03</internalNodes>
          <leafValues>
            -1.3931190967559814e-01 8.5538512468338013e-01</leafValues></_>
        <_>
          <internalNodes>
            0 -1 137 -4.5703887008130550e-04</internalNodes>
          <leafValues>
            5.7399106025695801e-01 -2.8227615356445313e-01</leafValues></_></weakClassifiers></_>
    <!-- stage 9 -->
    <_>
      <maxWeakCount>10</maxWeakCount>
      <stageThreshold>-8.7165606021881104e-01</stageThreshold>
      <weakClassifiers>
        <_>
          <internalNodes>
            0 -1 72 2.2620020434260368e-02</internalNodes>
          <leafValues>
            -3.5911601781845093e-01 5.0000000000000000e-01</leafValues></_>
        <_>
          <internalNodes>
            0 -1 150 -2.2846718784421682e-03</internalNodes>
          <leafValues>
            5.3475105762481689e-01 -3.3021545410156250e-01</leafValues></_>
        <_>
          <internalNodes>
            0 -1 23 -1.2336798012256622e-02</internalNodes>
          <leafValues>
            5.3934127092361450e-01 -2.8879758715629578e-01</leafValues></_>
        <_>
          <internalNodes>
            0 -1 92 -7.0959776639938354e-02</internalNodes>
          <leafValues>
            3.9997172355651855e-01 -4.0081751346588135e-01</leafValues></_>
        <_>
          <internalNodes>
            0 -1 165 8.4008660633116961e-04</internalNodes>
          <leafValues>
            -3.4922531247138977e-01 4.7497981786727905e-01</leafValues></_>
        <_>
          <internalNodes>
            0 -1 122 -6.1695813201367855e-03</internalNodes>
          <leafValues>
            7.0129132270812988e-01 -2.8799653053283691e-01</leafValues></_>
        <_>
          <internalNodes>
            0 -1 182 -3.7260442040860653e-03</internalNodes>
          <leafValues>
            8.5572749376296997e-01 -2.1836400032043457e-01</leafValues></_>
        <_>
          <internalNodes>
            0 -1 152 -4.9424446187913418e-03</internalNodes>
          <leafValues>
            3.7534525990486145e-01 -4.2176869511604309e-01</leafValues></_>
        <_>
          <internalNodes>
            0 -1 118 -6.6876998171210289e-03</internalNodes>
          <leafValues>
            4.9200940132141113e-01 -3.5482096672058105e-01</leafValues></_>
        <_>
          <internalNodes>
            0 -1 0 -2.0136605016887188e-03</internalNodes>
          <leafValues>
            5.1814687252044678e-01 -3.3424574136734009e-01</leafValues></_></weakClassifiers></_>
    <!-- stage 10 -->
    <_>
      <maxWeakCount>7</maxWeakCount>
      <stageThreshold>-1.2781398296356201e+00</stageThreshold>
      <weakClassifiers>
        <_>
          <internalNodes>
            0 -1 76 4.1517126373946667e-03</internalNodes>
          <leafValues>
            -4.1104295849800110e-01 4.4444444775581360e-01</leafValues></_>
        <_>
          <internalNodes>
            0 -1 130 -3.4105032682418823e-05</internalNodes>
          <leafValues>
            3.6819940805435181e-01 -4.4093379378318787e-01</leafValues></_>
        <_>
          <internalNodes>
            0 -1 125 -1.9657555967569351e-02</internalNodes>
          <leafValues>
            5.1401150226593018e-01 -3.2266733050346375e-01</leafValues></_>
        <_>
          <internalNodes>
            0 -1 172 -8.2069467753171921e-03</internalNodes>
          <leafValues>
            4.8950514197349548e-01 -3.8045299053192139e-01</leafValues></_>
        <_>
          <internalNodes>
            0 -1 96 -5.3810002282261848e-04</internalNodes>
          <leafValues>
            -3.9634680747985840e-01 3.9317041635513306e-01</leafValues></_>
        <_>
          <internalNodes>
            0 -1 60 -3.1145389657467604e-03</internalNodes>
          <leafValues>
            -6.1943447589874268e-01 2.6753532886505127e-01</leafValues></_>
        <_>
          <internalNodes>
            0 -1 164 -5.5363212595693767e-05</internalNodes>
          <leafValues>
            -4.6418938040733337e-01 3.5194146633148193e-01</leafValues></_></weakClassifiers></_>
    <!-- stage 11 -->
    <_>
      <maxWeakCount>10</maxWeakCount>
      <stageThreshold>-7.8320199251174927e-01</stageThreshold>
      <weakClassifiers>
        <_>
          <internalNodes>
            0 -1 34 -5.0194025039672852e-02</internalNodes>
          <leafValues>
            6.0465115308761597e-01 -3.1034481525421143e-01</leafValues></_>
        <_>
          <internalNodes>
            0 -1 116 -3.7482134997844696e-02</internalNodes>
          <leafValues>
            6.1716419458389282e-01 -2.3083506524562836e-01</leafValues></_>
        <_>
          <internalNodes>
            0 -1 126 3.1724353320896626e-03</internalNodes>
          <leafValues>
            -2.2230258584022522e-01 6.6526019573211670e-01</leafValues></_>
        <_>
          <internalNodes>
            0 -1 139 -5.8069964870810509e-03</internalNodes>
          <leafValues>
            -9.7014075517654419e-01 1.8143199384212494e-01</leafValues></_>
        <_>
          <internalNodes>
            0 -1 101 -2.7907402254641056e-03</internalNodes>
          <leafValues>
            -3.7546938657760620e-01 3.7109890580177307e-01</leafValues></_>
        <_>
          <internalNodes>
            0 -1 148 -5.7685781270265579e-02</internalNodes>
          <leafValues>
            2.4494373798370361e-01 -6.3757920265197754e-01</leafValues></_>
        <_>
          <internalNodes>
            0 -1 94 -2.8976500034332275e-03</internalNodes>
          <leafValues>
            7.1295213699340820e-01 -2.0147491991519928e-01</leafValues></_>
        <_>
          <internalNodes>
            0 -1 186 1.2353662401437759e-02</internalNodes>
          <leafValues>
            -1.7119325697422028e-01 7.6798290014266968e-01</leafValues></_>
        <_>
          <internalNodes>
            0 -1 1 5.9095211327075958e-03</internalNodes>
          <leafValues>
            -1.4344675838947296e-01 8.9515399932861328e-01</leafValues></_>
        <_>
          <internalNodes>
            0 -1 14 -4.5385286211967468e-03</internalNodes>
          <leafValues>
            4.4772574305534363e-01 -4.0251019597053528e-01</leafValues></_></weakClassifiers></_>
    <!-- stage 12 -->
    <_>
      <maxWeakCount>11</maxWeakCount>
      <stageThreshold>-7.5372517108917236e-01</stageThreshold>
      <weakClassifiers>
        <_>
          <internalNodes>
            0 -1 62 -3.2010022550821304e-02</internalNodes>
          <leafValues>
            5.2577316761016846e-01 -3.2291665673255920e-01</leafValues></_>
        <_>
          <internalNodes>
            0 -1 131 -2.8040029574185610e-03</internalNodes>
          <leafValues>
            -3.3756613731384277e-01 3.8705006241798401e-01</leafValues></_>
        <_>
          <internalNodes>
            0 -1 169 3.3283427357673645e-02</internalNodes>
          <leafValues>
            -1.7073580622673035e-01 6.8868166208267212e-01</leafValues></_>
        <_>
          <internalNodes>
            0 -1 176 -2.4338564835488796e-03</internalNodes>
          <leafValues>
            5.3069996833801270e-01 -2.4977745115756989e-01</leafValues></_>
        <_>
          <internalNodes>
            0 -1 73 3.0473682563751936e-03</internalNodes>
          <leafValues>
            -2.5828734040260315e-01 5.0925040245056152e-01</leafValues></_>
        <_>
          <internalNodes>
            0 -1 145 -1.1389703722670674e-03</internalNodes>
          <leafValues>
            3.2184323668479919e-01 -4.3353581428527832e-01</leafValues></_>
        <_>
          <internalNodes>
            0 -1 48 -1.1597019433975220e-01</internalNodes>
          <leafValues>
            -8.3151829242706299e-01 1.7874272167682648e-01</leafValues></_>
        <_>
          <internalNodes>
            0 -1 129 -1.0321856476366520e-02</internalNodes>
          <leafValues>
            9.1565126180648804e-01 -1.5190716087818146e-01</leafValues></_>
        <_>
          <internalNodes>
            0 -1 144 3.4361396683380008e-04</internalNodes>
          <leafValues>
            2.4489983916282654e-01 -5.8646142482757568e-01</leafValues></_>
        <_>
          <internalNodes>
            0 -1 18 2.6437412016093731e-03</internalNodes>
          <leafValues>
            -3.4234869480133057e-01 3.7104842066764832e-01</leafValues></_>
        <_>
          <internalNodes>
            0 -1 39 3.0917725525796413e-03</internalNodes>
          <leafValues>
            -2.2871680557727814e-01 6.2944728136062622e-01</leafValues></_></weakClassifiers></_>
    <!-- stage 13 -->
    <_>
      <maxWeakCount>9</maxWeakCount>
      <stageThreshold>-6.8953949213027954e-01</stageThreshold>
      <weakClassifiers>
        <_>
          <internalNodes>
            0 -1 80 4.4848811812698841e-03</internalNodes>
          <leafValues>
            -4.5070421695709229e-01 3.6054420471191406e-01</leafValues></_>
        <_>
          <internalNodes>
            0 -1 99 -6.7536666989326477e-02</internalNodes>
          <leafValues>
            -6.2010473012924194e-01 2.0802348852157593e-01</leafValues></_>
        <_>
          <internalNodes>
            0 -1 33 8.1617099931463599e-04</internalNodes>
          <leafValues>
            -3.8029456138610840e-01 3.4390801191329956e-01</leafValues></_>
        <_>
          <internalNodes>
            0 -1 191 -1.0462980717420578e-03</internalNodes>
          <leafValues>
            -8.6291426420211792e-01 1.5689037740230560e-01</leafValues></_>
        <_>
          <internalNodes>
            0 -1 121 3.0391893233172596e-04</internalNodes>
          <leafValues>
            -2.9973790049552917e-01 4.0748149156570435e-01</leafValues></_>
        <_>
          <internalNodes>
            0 -1 65 1.6624208539724350e-02</internalNodes>
          <leafValues>
            -1.8777473270893097e-01 7.1809881925582886e-01</leafValues></_>
        <_>
          <internalNodes>
            0 -1 161 -2.7797243092209101e-04</internalNodes>
          <leafValues>
            2.5955227017402649e-01 -5.1584517955780029e-01</leafValues></_>
        <_>
          <internalNodes>
            0 -1 114 -2.0406453404575586e-04</internalNodes>
          <leafValues>
            3.9044594764709473e-01 -3.3351728320121765e-01</leafValues></_>
        <_>
          <internalNodes>
            0 -1 6 -1.2860412243753672e-04</internalNodes>
          <leafValues>
            4.6575793623924255e-01 -3.1776210665702820e-01</leafValues></_></weakClassifiers></_>
    <!-- stage 14 -->
    <_>
      <maxWeakCount>9</maxWeakCount>
      <stageThreshold>-5.3952318429946899e-01</stageThreshold>
      <weakClassifiers>
        <_>
          <internalNodes>
            0 -1 183 8.5447840392589569e-03</internalNodes>
          <leafValues>
            -2.6415094733238220e-01 5.8441555500030518e-01</leafValues></_>
        <_>
          <internalNodes>
            0 -1 74 -8.3108420949429274e-04</internalNodes>
          <leafValues>
            3.3637991547584534e-01 -3.4950384497642517e-01</leafValues></_>
        <_>
          <internalNodes>
            0 -1 166 -2.5990754365921021e-03</internalNodes>
          <leafValues>
            4.3414917588233948e-01 -2.8946256637573242e-01</leafValues></_>
        <_>
          <internalNodes>
            0 -1 57 -6.1231758445501328e-03</internalNodes>
          <leafValues>
            4.8042908310890198e-01 -2.4659644067287445e-01</leafValues></_>
        <_>
          <internalNodes>
            0 -1 141 -3.2096267677843571e-03</internalNodes>
          <leafValues>
            4.3257758021354675e-01 -2.8882095217704773e-01</leafValues></_>
        <_>
          <internalNodes>
            0 -1 100 -3.6864054854959249e-03</internalNodes>
          <leafValues>
            -2.1141453087329865e-01 6.4123630523681641e-01</leafValues></_>
        <_>
          <internalNodes>
            0 -1 119 -5.6002417113631964e-04</internalNodes>
          <leafValues>
            5.0713169574737549e-01 -2.4604928493499756e-01</leafValues></_>
        <_>
          <internalNodes>
            0 -1 134 8.0579370260238647e-03</internalNodes>
          <leafValues>
            -2.1886742115020752e-01 6.5770828723907471e-01</leafValues></_>
        <_>
          <internalNodes>
            0 -1 55 9.1276428429409862e-04</internalNodes>
          <leafValues>
            2.8148335218429565e-01 -5.5555123090744019e-01</leafValues></_></weakClassifiers></_>
    <!-- stage 15 -->
    <_>
      <maxWeakCount>10</maxWeakCount>
      <stageThreshold>-9.8068124055862427e-01</stageThreshold>
      <weakClassifiers>
        <_>
          <internalNodes>
            0 -1 3 -3.8356970995664597e-02</internalNodes>
          <leafValues>
            8.5365855693817139e-01 -1.8548387289047241e-01</leafValues></_>
        <_>
          <internalNodes>
            0 -1 50 -4.5627565123140812e-03</internalNodes>
          <leafValues>
            -8.0045950412750244e-01 1.8426088988780975e-01</leafValues></_>
        <_>
          <internalNodes>
            0 -1 158 -1.1535235680639744e-03</internalNodes>
          <leafValues>
            5.5237269401550293e-01 -3.0364185571670532e-01</leafValues></_>
        <_>
          <internalNodes>
            0 -1 83 -1.3283435255289078e-03</internalNodes>
          <leafValues>
            4.7644388675689697e-01 -2.4599039554595947e-01</leafValues></_>
        <_>
          <internalNodes>
            0 -1 162 8.1235240213572979e-04</internalNodes>
          <leafValues>
            -2.9566171765327454e-01 4.2174461483955383e-01</leafValues></_>
        <_>
          <internalNodes>
            0 -1 88 -2.2602970711886883e-03</internalNodes>
          <leafValues>
            -7.7273529767990112e-01 1.6851228475570679e-01</leafValues></_>
        <_>
          <internalNodes>
            0 -1 185 -1.0480412747710943e-03</internalNodes>
          <leafValues>
            -6.0439842939376831e-01 1.7160940170288086e-01</leafValues></_>
        <_>
          <internalNodes>
            0 -1 104 -5.7324916124343872e-03</internalNodes>
          <leafValues>
            2.4996209144592285e-01 -4.7914335131645203e-01</leafValues></_>
        <_>
          <internalNodes>
            0 -1 157 -1.7125649610534310e-03</internalNodes>
          <leafValues>
            7.1555739641189575e-01 -2.3047856986522675e-01</leafValues></_>
        <_>
          <internalNodes>
            0 -1 112 -8.7905110558494925e-04</internalNodes>
          <leafValues>
            -7.3744732141494751e-01 2.3533588647842407e-01</leafValues></_></weakClassifiers></_>
    <!-- stage 16 -->
    <_>
      <maxWeakCount>10</maxWeakCount>
      <stageThreshold>-6.8101894855499268e-01</stageThreshold>
      <weakClassifiers>
        <_>
          <internalNodes>
            0 -1 140 5.3037330508232117e-03</internalNodes>
          <leafValues>
            -3.5526314377784729e-01 3.1386861205101013e-01</leafValues></_>
        <_>
          <internalNodes>
            0 -1 135 1.1728855222463608e-01</internalNodes>
          <leafValues>
            1.3212071359157562e-01 -8.1559693813323975e-01</leafValues></_>
        <_>
          <internalNodes>
            0 -1 159 6.4722867682576180e-04</internalNodes>
          <leafValues>
            1.3575614988803864e-01 -7.9260116815567017e-01</leafValues></_>
        <_>
          <internalNodes>
            0 -1 20 4.4883033260703087e-03</internalNodes>
          <leafValues>
            -2.4605314433574677e-01 5.7195729017257690e-01</leafValues></_>
        <_>
          <internalNodes>
            0 -1 40 7.9588487278670073e-04</internalNodes>
          <leafValues>
            2.7734029293060303e-01 -4.7464269399642944e-01</leafValues></_>
        <_>
          <internalNodes>
            0 -1 71 -2.2541992366313934e-03</internalNodes>
          <leafValues>
            4.2738226056098938e-01 -3.1639373302459717e-01</leafValues></_>
        <_>
          <internalNodes>
            0 -1 97 -2.9148557223379612e-03</internalNodes>
          <leafValues>
            7.6390796899795532e-01 -1.5641993284225464e-01</leafValues></_>
        <_>
          <internalNodes>
            0 -1 93 -8.9061781764030457e-03</internalNodes>
          <leafValues>
            6.9379585981369019e-01 -1.6466669738292694e-01</leafValues></_>
        <_>
          <internalNodes>
            0 -1 138 2.3062256514094770e-04</internalNodes>
          <leafValues>
            -2.1142514050006866e-01 5.0889742374420166e-01</leafValues></_>
        <_>
          <internalNodes>
            0 -1 133 -1.8532844478613697e-05</internalNodes>
          <leafValues>
            2.8766953945159912e-01 -4.3693912029266357e-01</leafValues></_></weakClassifiers></_>
    <!-- stage 17 -->
    <_>
      <maxWeakCount>9</maxWeakCount>
      <stageThreshold>-7.8642219305038452e-01</stageThreshold>
      <weakClassifiers>
        <_>
          <internalNodes>
            0 -1 175 -2.6295664720237255e-03</internalNodes>
          <leafValues>
            -2.6315790414810181e-01 5.5000001192092896e-01</leafValues></_>
        <_>
          <internalNodes>
            0 -1 177 1.0277492925524712e-02</internalNodes>
          <leafValues>
            -1.7372004687786102e-01 6.4212733507156372e-01</leafValues></_>
        <_>
          <internalNodes>
            0 -1 130 -9.3637077952735126e-05</internalNodes>
          <leafValues>
            2.8347256779670715e-01 -4.1460594534873962e-01</leafValues></_>
        <_>
          <internalNodes>
            0 -1 120 5.1687855739146471e-04</internalNodes>
          <leafValues>
            1.4763841032981873e-01 -8.6724948883056641e-01</leafValues></_>
        <_>
          <internalNodes>
            0 -1 82 -5.2910669182892889e-05</internalNodes>
          <leafValues>
            3.3690884709358215e-01 -4.2607641220092773e-01</leafValues></_>
        <_>
          <internalNodes>
            0 -1 63 2.9107253067195415e-04</internalNodes>
          <leafValues>
            -3.0588299036026001e-01 4.1526243090629578e-01</leafValues></_>
        <_>
          <internalNodes>
            0 -1 123 -2.8413947438821197e-04</internalNodes>
          <leafValues>
            4.3822526931762695e-01 -3.3841645717620850e-01</leafValues></_>
        <_>
          <internalNodes>
            0 -1 160 8.0292075872421265e-03</internalNodes>
          <leafValues>
            -2.3030647635459900e-01 6.9436603784561157e-01</leafValues></_>
        <_>
          <internalNodes>
            0 -1 25 -1.1237887665629387e-03</internalNodes>
          <leafValues>
            7.3438239097595215e-01 -2.0111830532550812e-01</leafValues></_></weakClassifiers></_>
    <!-- stage 18 -->
    <_>
      <maxWeakCount>10</maxWeakCount>
      <stageThreshold>-5.1206439733505249e-01</stageThreshold>
      <weakClassifiers>
        <_>
          <internalNodes>
            0 -1 146 1.1652389541268349e-02</internalNodes>
          <leafValues>
            -3.9436620473861694e-01 3.0612245202064514e-01</leafValues></_>
        <_>
          <internalNodes>
            0 -1 19 -2.3153457790613174e-02</internalNodes>
          <leafValues>
            4.4641542434692383e-01 -2.7127552032470703e-01</leafValues></_>
        <_>
          <internalNodes>
            0 -1 35 -9.1062802821397781e-03</internalNodes>
          <leafValues>
            7.9370361566543579e-01 -1.4135284721851349e-01</leafValues></_>
        <_>
          <internalNodes>
            0 -1 28 5.9724831953644753e-03</internalNodes>
          <leafValues>
            -2.2338525950908661e-01 6.3157111406326294e-01</leafValues></_>
        <_>
          <internalNodes>
            0 -1 43 5.1931780762970448e-04</internalNodes>
          <leafValues>
            2.8591477870941162e-01 -4.6122926473617554e-01</leafValues></_>
        <_>
          <internalNodes>
            0 -1 52 1.8619738519191742e-02</internalNodes>
          <leafValues>
            -2.6260095834732056e-01 5.2253025770187378e-01</leafValues></_>
        <_>
          <internalNodes>
            0 -1 127 -9.2642277013510466e-04</internalNodes>
          <leafValues>
            -6.3239592313766479e-01 2.0997698605060577e-01</leafValues></_>
        <_>
          <internalNodes>
            0 -1 117 -3.2717371359467506e-03</internalNodes>
          <leafValues>
            6.5611869096755981e-01 -1.6836337745189667e-01</leafValues></_>
        <_>
          <internalNodes>
            0 -1 143 4.6698807273060083e-04</internalNodes>
          <leafValues>
            1.9693681597709656e-01 -6.1269193887710571e-01</leafValues></_>
        <_>
          <internalNodes>
            0 -1 24 -6.0065006837248802e-03</internalNodes>
          <leafValues>
            3.6559134721755981e-01 -3.3338063955307007e-01</leafValues></_></weakClassifiers></_>
    <!-- stage 19 -->
    <_>
      <maxWeakCount>10</maxWeakCount>
      <stageThreshold>-7.9614335298538208e-01</stageThreshold>
      <weakClassifiers>
        <_>
          <internalNodes>
            0 -1 91 6.3381614163517952e-03</internalNodes>
          <leafValues>
            -3.3333334326744080e-01 3.0827066302299500e-01</leafValues></_>
        <_>
          <internalNodes>
            0 -1 193 8.8409939780831337e-04</internalNodes>
          <leafValues>
            1.3151118159294128e-01 -7.8044170141220093e-01</leafValues></_>
        <_>
          <internalNodes>
            0 -1 189 3.4658988006412983e-03</internalNodes>
          <leafValues>
            -3.0095341801643372e-01 3.8557177782058716e-01</leafValues></_>
        <_>
          <internalNodes>
            0 -1 179 -1.2073680758476257e-02</internalNodes>
          <leafValues>
            8.9995634555816650e-01 -1.4228713512420654e-01</leafValues></_>
        <_>
          <internalNodes>
            0 -1 59 3.1108727853279561e-05</internalNodes>
          <leafValues>
            2.9654937982559204e-01 -4.0534627437591553e-01</leafValues></_>
        <_>
          <internalNodes>
            0 -1 70 -6.9229095242917538e-04</internalNodes>
          <leafValues>
            5.1470714807510376e-01 -2.3683717846870422e-01</leafValues></_>
        <_>
          <internalNodes>
            0 -1 58 -4.3702051043510437e-03</internalNodes>
          <leafValues>
            -2.0845827460289001e-01 5.4632657766342163e-01</leafValues></_>
        <_>
          <internalNodes>
            0 -1 38 2.9942283872514963e-03</internalNodes>
          <leafValues>
            -2.1052145957946777e-01 5.4716855287551880e-01</leafValues></_>
        <_>
          <internalNodes>
            0 -1 56 -9.0514086186885834e-03</internalNodes>
          <leafValues>
            3.3007338643074036e-01 -3.7722328305244446e-01</leafValues></_>
        <_>
          <internalNodes>
            0 -1 106 -1.6450065231765620e-05</internalNodes>
          <leafValues>
            2.5562846660614014e-01 -5.0648200511932373e-01</leafValues></_></weakClassifiers></_>
    <!-- stage 20 -->
    <_>
      <maxWeakCount>8</maxWeakCount>
      <stageThreshold>-7.3637294769287109e-01</stageThreshold>
      <weakClassifiers>
        <_>
          <internalNodes>
            0 -1 21 -4.1367467492818832e-03</internalNodes>
          <leafValues>
            4.9397590756416321e-01 -2.5242719054222107e-01</leafValues></_>
        <_>
          <internalNodes>
            0 -1 46 -3.2759448513388634e-03</internalNodes>
          <leafValues>
            2.3959019780158997e-01 -5.2769798040390015e-01</leafValues></_>
        <_>
          <internalNodes>
            0 -1 128 1.5132704749703407e-02</internalNodes>
          <leafValues>
            -2.1407058835029602e-01 5.6404441595077515e-01</leafValues></_>
        <_>
          <internalNodes>
            0 -1 171 -8.7462650844827294e-04</internalNodes>
          <leafValues>
            -8.8431632518768311e-01 1.2516574561595917e-01</leafValues></_>
        <_>
          <internalNodes>
            0 -1 47 -9.0954765677452087e-02</internalNodes>
          <leafValues>
            -8.7805354595184326e-01 1.2342090159654617e-01</leafValues></_>
        <_>
          <internalNodes>
            0 -1 153 -9.8881367594003677e-03</internalNodes>
          <leafValues>
            -4.3362551927566528e-01 2.3812562227249146e-01</leafValues></_>
        <_>
          <internalNodes>
            0 -1 66 -3.8006494287401438e-04</internalNodes>
          <leafValues>
            -6.4255964756011963e-01 1.9941899180412292e-01</leafValues></_>
        <_>
          <internalNodes>
            0 -1 109 -1.9709425978362560e-03</internalNodes>
          <leafValues>
            3.3901825547218323e-01 -3.5661241412162781e-01</leafValues></_></weakClassifiers></_>
    <!-- stage 21 -->
    <_>
      <maxWeakCount>10</maxWeakCount>
      <stageThreshold>-7.3221856355667114e-01</stageThreshold>
      <weakClassifiers>
        <_>
          <internalNodes>
            0 -1 2 1.5886796172708273e-03</internalNodes>
          <leafValues>
            -3.9072847366333008e-01 3.4782609343528748e-01</leafValues></_>
        <_>
          <internalNodes>
            0 -1 69 -7.0841439068317413e-02</internalNodes>
          <leafValues>
            4.9335175752639771e-01 -2.2879874706268311e-01</leafValues></_>
        <_>
          <internalNodes>
            0 -1 178 -1.1349314823746681e-02</internalNodes>
          <leafValues>
            9.6281492710113525e-01 -1.1254960298538208e-01</leafValues></_>
        <_>
          <internalNodes>
            0 -1 184 9.4428118318319321e-03</internalNodes>
          <leafValues>
            -2.4711880087852478e-01 5.0352376699447632e-01</leafValues></_>
        <_>
          <internalNodes>
            0 -1 87 -2.1162629127502441e-03</internalNodes>
          <leafValues>
            5.3624427318572998e-01 -2.6638814806938171e-01</leafValues></_>
        <_>
          <internalNodes>
            0 -1 84 -4.2234519496560097e-03</internalNodes>
          <leafValues>
            5.5679959058761597e-01 -2.0774962007999420e-01</leafValues></_>
        <_>
          <internalNodes>
            0 -1 26 3.1028327066451311e-04</internalNodes>
          <leafValues>
            1.9136050343513489e-01 -6.0493540763854980e-01</leafValues></_>
        <_>
          <internalNodes>
            0 -1 67 1.0051323100924492e-02</internalNodes>
          <leafValues>
            1.4586041867733002e-01 -8.2179474830627441e-01</leafValues></_>
        <_>
          <internalNodes>
            0 -1 89 -1.9125506514683366e-04</internalNodes>
          <leafValues>
            2.8228923678398132e-01 -4.0912678837776184e-01</leafValues></_>
        <_>
          <internalNodes>
            0 -1 102 2.0986917661502957e-04</internalNodes>
          <leafValues>
            -2.8234383463859558e-01 4.0923631191253662e-01</leafValues></_></weakClassifiers></_>
    <!-- stage 22 -->
    <_>
      <maxWeakCount>8</maxWeakCount>
      <stageThreshold>-5.7962596416473389e-01</stageThreshold>
      <weakClassifiers>
        <_>
          <internalNodes>
            0 -1 45 3.2602092251181602e-03</internalNodes>
          <leafValues>
            -2.6066350936889648e-01 5.6410259008407593e-01</leafValues></_>
        <_>
          <internalNodes>
            0 -1 5 -5.5773571133613586e-02</internalNodes>
          <leafValues>
            -7.3979538679122925e-01 1.8292923271656036e-01</leafValues></_>
        <_>
          <internalNodes>
            0 -1 105 1.2122016632929444e-03</internalNodes>
          <leafValues>
            -1.8312807381153107e-01 6.8407982587814331e-01</leafValues></_>
        <_>
          <internalNodes>
            0 -1 15 -1.8396934028714895e-03</internalNodes>
          <leafValues>
            6.0806673765182495e-01 -1.8838378787040710e-01</leafValues></_>
        <_>
          <internalNodes>
            0 -1 53 -2.4008427863009274e-04</internalNodes>
          <leafValues>
            -5.6651318073272705e-01 2.4793988466262817e-01</leafValues></_>
        <_>
          <internalNodes>
            0 -1 68 4.2630564421415329e-03</internalNodes>
          <leafValues>
            -1.9795326888561249e-01 8.8041770458221436e-01</leafValues></_>
        <_>
          <internalNodes>
            0 -1 192 -3.5787525121122599e-04</internalNodes>
          <leafValues>
            -5.9018588066101074e-01 2.3587100207805634e-01</leafValues></_>
        <_>
          <internalNodes>
            0 -1 136 -1.5446488396264613e-04</internalNodes>
          <leafValues>
            4.4162133336067200e-01 -3.1827887892723083e-01</leafValues></_></weakClassifiers></_>
    <!-- stage 23 -->
    <_>
      <maxWeakCount>10</maxWeakCount>
      <stageThreshold>-5.1699739694595337e-01</stageThreshold>
      <weakClassifiers>
        <_>
          <internalNodes>
            0 -1 61 5.7621684391051531e-04</internalNodes>
          <leafValues>
            -2.0000000298023224e-01 6.6666668653488159e-01</leafValues></_>
        <_>
          <internalNodes>
            0 -1 30 -6.2665373086929321e-02</internalNodes>
          <leafValues>
            4.7889104485511780e-01 -2.0779977738857269e-01</leafValues></_>
        <_>
          <internalNodes>
            0 -1 22 -1.4245406782720238e-04</internalNodes>
          <leafValues>
            -4.3988636136054993e-01 2.3970261216163635e-01</leafValues></_>
        <_>
          <internalNodes>
            0 -1 90 2.0178101956844330e-02</internalNodes>
          <leafValues>
            -1.5356026589870453e-01 6.3807618618011475e-01</leafValues></_>
        <_>
          <internalNodes>
            0 -1 98 6.6426694393157959e-03</internalNodes>
          <leafValues>
            1.8370015919208527e-01 -6.7423599958419800e-01</leafValues></_>
        <_>
          <internalNodes>
            0 -1 124 -4.0247041732072830e-02</internalNodes>
          <leafValues>
            7.1178609132766724e-01 -1.6658785939216614e-01</leafValues></_>
        <_>
          <internalNodes>
            0 -1 86 1.7916748765856028e-03</internalNodes>
          <leafValues>
            -2.6988324522972107e-01 5.4163730144500732e-01</leafValues></_>
        <_>
          <internalNodes>
            0 -1 13 -1.2657402455806732e-01</internalNodes>
          <leafValues>
            -1. 1.7288151383399963e-01</leafValues></_>
        <_>
          <internalNodes>
            0 -1 181 -1.1960549280047417e-02</internalNodes>
          <leafValues>
            3.9286950230598450e-01 -3.6171343922615051e-01</leafValues></_>
        <_>
          <internalNodes>
            0 -1 113 5.1379477372393012e-04</internalNodes>
          <leafValues>
            2.4626292288303375e-01 -4.7761359810829163e-01</leafValues></_></weakClassifiers></_></stages>
  <features>
    <_>
      <rects>
        <_>
          0 0 2 5 -1.</_>
        <_>
          1 0 1 5 2.</_></rects>
      <tilted>0</tilted></_>
    <_>
      <rects>
        <_>
          0 0 2 8 -1.</_>
        <_>
          1 0 1 8 2.</_></rects>
      <tilted>0</tilted></_>
    <_>
      <rects>
        <_>
          0 0 2 24 -1.</_>
        <_>
          0 0 1 12 2.</_>
        <_>
          1 12 1 12 2.</_></rects>
      <tilted>0</tilted></_>
    <_>
      <rects>
        <_>
          0 0 4 16 -1.</_>
        <_>
          0 0 2 8 2.</_>
        <_>
          2 8 2 8 2.</_></rects>
      <tilted>0</tilted></_>
    <_>
      <rects>
        <_>
          0 0 6 1 -1.</_>
        <_>
          3 0 3 1 2.</_></rects>
      <tilted>0</tilted></_>
    <_>
      <rects>
        <_>
          0 0 7 8 -1.</_>
        <_>
          0 4 7 4 2.</_></rects>
      <tilted>0</tilted></_>
    <_>
      <rects>
        <_>
          0 1 2 2 -1.</_>
        <_>
          0 1 1 1 2.</_>
        <_>
          1 2 1 1 2.</_></rects>
      <tilted>0</tilted></_>
    <_>
      <rects>
        <_>
          0 1 2 9 -1.</_>
        <_>
          1 1 1 9 2.</_></rects>
      <tilted>0</tilted></_>
    <_>
      <rects>
        <_>
          0 1 4 13 -1.</_>
        <_>
          2 1 2 13 2.</_></rects>
      <tilted>0</tilted></_>
    <_>
      <rects>
        <_>
          0 1 4 14 -1.</_>
        <_>
          2 1 2 14 2.</_></rects>
      <tilted>0</tilted></_>
    <_>
      <rects>
        <_>
          0 1 6 1 -1.</_>
        <_>
          3 1 3 1 2.</_></rects>
      <tilted>0</tilted></_>
    <_>
      <rects>
        <_>
          0 2 2 4 -1.</_>
        <_>
          1 2 1 4 2.</_></rects>
      <tilted>0</tilted></_>
    <_>
      <rects>
        <_>
          0 2 2 10 -1.</_>
        <_>
          1 2 1 10 2.</_></rects>
      <tilted>0</tilted></_>
    <_>
      <rects>
        <_>
          0 2 2 18 -1.</_>
        <_>
          0 8 2 6 2.</_></rects>
      <tilted>0</tilted></_>
    <_>
      <rects>
        <_>
          0 3 2 13 -1.</_>
        <_>
          1 3 1 13 2.</_></rects>
      <tilted>0</tilted></_>
    <_>
      <rects>
        <_>
          0 4 2 1 -1.</_>
        <_>
          1 4 1 1 2.</_></rects>
      <tilted>0</tilted></_>
    <_>
      <rects>
        <_>
          0 4 2 2 -1.</_>
        <_>
          1 4 1 2 2.</_></rects>
      <tilted>0</tilted></_>
    <_>
      <rects>
        <_>
          0 5 2 2 -1.</_>
        <_>
          1 5 1 2 2.</_></rects>
      <tilted>0</tilted></_>
    <_>
      <rects>
        <_>
          0 5 2 14 -1.</_>
        <_>
          0 5 1 7 2.</_>
        <_>
          1 12 1 7 2.</_></rects>
      <tilted>0</tilted></_>
    <_>
      <rects>
        <_>
          0 5 6 16 -1.</_>
        <_>
          0 5 3 8 2.</_>
        <_>
          3 13 3 8 2.</_></rects>
      <tilted>0</tilted></_>
    <_>
      <rects>
        <_>
          0 8 2 10 -1.</_>
        <_>
          0 8 1 5 2.</_>
        <_>
          1 13 1 5 2.</_></rects>
      <tilted>0</tilted></_>
    <_>
      <rects>
        <_>
          0 8 4 1 -1.</_>
        <_>
          2 8 2 1 2.</_></rects>
      <tilted>0</tilted></_>
    <_>
      <rects>
        <_>
          0 12 1 2 -1.</_>
        <_>
          0 13 1 1 2.</_></rects>
      <tilted>0</tilted></_>
    <_>
      <rects>
        <_>
          0 13 8 3 -1.</_>
        <_>
          4 13 4 3 2.</_></rects>
      <tilted>0</tilted></_>
    <_>
      <rects>
        <_>
          0 16 24 4 -1.</_>
        <_>
          0 18 24 2 2.</_></rects>
      <tilted>0</tilted></_>
    <_>
      <rects>
        <_>
          0 19 6 2 -1.</_>
        <_>
          0 19 3 1 2.</_>
        <_>
          3 20 3 1 2.</_></rects>
      <tilted>0</tilted></_>
    <_>
      <rects>
        <_>
          0 21 1 2 -1.</_>
        <_>
          0 22 1 1 2.</_></rects>
      <tilted>0</tilted></_>
    <_>
      <rects>
        <_>
          0 22 1 2 -1.</_>
        <_>
          0 23 1 1 2.</_></rects>
      <tilted>0</tilted></_>
    <_>
      <rects>
        <_>
          1 0 2 9 -1.</_>
        <_>
          2 0 1 9 2.</_></rects>
      <tilted>0</tilted></_>
    <_>
      <rects>
        <_>
          1 0 16 8 -1.</_>
        <_>
          1 4 16 4 2.</_></rects>
      <tilted>0</tilted></_>
    <_>
      <rects>
        <_>
          1 0 21 6 -1.</_>
        <_>
          1 3 21 3 2.</_></rects>
      <tilted>0</tilted></_>
    <_>
      <rects>
        <_>
          1 2 2 6 -1.</_>
        <_>
          2 2 1 6 2.</_></rects>
      <tilted>0</tilted></_>
    <_>
      <rects>
        <_>
          1 2 6 1 -1.</_>
        <_>
          3 2 2 1 2.</_></rects>
      <tilted>0</tilted></_>
    <_>
      <rects>
        <_>
          1 2 4 2 -1.</_>
        <_>
          3 2 2 2 2.</_></rects>
      <tilted>0</tilted></_>
    <_>
      <rects>
        <_>
          1 2 6 20 -1.</_>
        <_>
          1 2 3 10 2.</_>
        <_>
          4 12 3 10 2.</_></rects>
      <tilted>0</tilted></_>
    <_>
      <rects>
        <_>
          1 5 2 5 -1.</_>
        <_>
          2 5 1 5 2.</_></rects>
      <tilted>0</tilted></_>
    <_>
      <rects>
        <_>
          1 5 8 18 -1.</_>
        <_>
          1 5 4 9 2.</_>
        <_>
          5 14 4 9 2.</_></rects>
      <tilted>0</tilted></_>
    <_>
      <rects>
        <_>
          1 8 2 10 -1.</_>
        <_>
          2 8 1 10 2.</_></rects>
      <tilted>0</tilted></_>
    <_>
      <rects>
        <_>
          1 8 4 14 -1.</_>
        <_>
          1 8 2 7 2.</_>
        <_>
          3 15 2 7 2.</_></rects>
      <tilted>0</tilted></_>
    <_>
      <rects>
        <_>
          1 10 4 5 -1.</_>
        <_>
          3 10 2 5 2.</_></rects>
      <tilted>0</tilted></_>
    <_>
      <rects>
        <_>
          1 12 8 2 -1.</_>
        <_>
          1 13 8 1 2.</_></rects>
      <tilted>0</tilted></_>
    <_>
      <rects>
        <_>
          1 20 12 2 -1.</_>
        <_>
          1 20 6 1 2.</_>
        <_>
          7 21 6 1 2.</_></rects>
      <tilted>0</tilted></_>
    <_>
      <rects>
        <_>
          1 20 22 4 -1.</_>
        <_>
          1 22 22 2 2.</_></rects>
      <tilted>0</tilted></_>
    <_>
      <rects>
        <_>
          1 21 3 2 -1.</_>
        <_>
          1 22 3 1 2.</_></rects>
      <tilted>0</tilted></_>
    <_>
      <rects>
        <_>
          1 22 9 1 -1.</_>
        <_>
          4 22 3 1 2.</_></rects>
      <tilted>0</tilted></_>
    <_>
      <rects>
        <_>
          2 0 2 6 -1.</_>
        <_>
          3 0 1 6 2.</_></rects>
      <tilted>0</tilted></_>
    <_>
      <rects>
        <_>
          2 0 4 18 -1.</_>
        <_>
          2 9 4 9 2.</_></rects>
      <tilted>0</tilted></_>
    <_>
      <rects>
        <_>
          2 0 20 10 -1.</_>
        <_>
          2 0 10 5 2.</_>
        <_>
          12 5 10 5 2.</_></rects>
      <tilted>0</tilted></_>
    <_>
      <rects>
        <_>
          2 0 22 14 -1.</_>
        <_>
          2 0 11 7 2.</_>
        <_>
          13 7 11 7 2.</_></rects>
      <tilted>0</tilted></_>
    <_>
      <rects>
        <_>
          2 2 6 6 -1.</_>
        <_>
          2 5 6 3 2.</_></rects>
      <tilted>0</tilted></_>
    <_>
      <rects>
        <_>
          2 5 1 6 -1.</_>
        <_>
          2 8 1 3 2.</_></rects>
      <tilted>0</tilted></_>
    <_>
      <rects>
        <_>
          2 17 14 6 -1.</_>
        <_>
          2 17 7 3 2.</_>
        <_>
          9 20 7 3 2.</_></rects>
      <tilted>0</tilted></_>
    <_>
      <rects>
        <_>
          2 20 16 4 -1.</_>
        <_>
          2 22 16 2 2.</_></rects>
      <tilted>0</tilted></_>
    <_>
      <rects>
        <_>
          2 21 1 2 -1.</_>
        <_>
          2 22 1 1 2.</_></rects>
      <tilted>0</tilted></_>
    <_>
      <rects>
        <_>
          3 0 4 15 -1.</_>
        <_>
          5 0 2 15 2.</_></rects>
      <tilted>0</tilted></_>
    <_>
      <rects>
        <_>
          3 0 5 4 -1.</_>
        <_>
          3 2 5 2 2.</_></rects>
      <tilted>0</tilted></_>
    <_>
      <rects>
        <_>
          3 0 17 4 -1.</_>
        <_>
          3 2 17 2 2.</_></rects>
      <tilted>0</tilted></_>
    <_>
      <rects>
        <_>
          3 6 16 4 -1.</_>
        <_>
          3 6 8 2 2.</_>
        <_>
          11 8 8 2 2.</_></rects>
      <tilted>0</tilted></_>
    <_>
      <rects>
        <_>
          3 9 3 2 -1.</_>
        <_>
          4 9 1 2 2.</_></rects>
      <tilted>0</tilted></_>
    <_>
      <rects>
        <_>
          3 10 5 2 -1.</_>
        <_>
          3 11 5 1 2.</_></rects>
      <tilted>0</tilted></_>
    <_>
      <rects>
        <_>
          3 11 4 4 -1.</_>
        <_>
          5 11 2 4 2.</_></rects>
      <tilted>0</tilted></_>
    <_>
      <rects>
        <_>
          3 16 2 2 -1.</_>
        <_>
          3 16 1 1 2.</_>
        <_>
          4 17 1 1 2.</_></rects>
      <tilted>0</tilted></_>
    <_>
      <rects>
        <_>
          3 18 8 6 -1.</_>
        <_>
          7 18 4 6 2.</_></rects>
      <tilted>0</tilted></_>
    <_>
      <rects>
        <_>
          3 19 4 2 -1.</_>
        <_>
          3 19 2 1 2.</_>
        <_>
          5 20 2 1 2.</_></rects>
      <tilted>0</tilted></_>
    <_>
      <rects>
        <_>
          3 22 18 2 -1.</_>
        <_>
          3 23 18 1 2.</_></rects>
      <tilted>0</tilted></_>
    <_>
      <rects>
        <_>
          3 22 21 2 -1.</_>
        <_>
          3 23 21 1 2.</_></rects>
      <tilted>0</tilted></_>
    <_>
      <rects>
        <_>
          4 0 2 2 -1.</_>
        <_>
          4 0 1 1 2.</_>
        <_>
          5 1 1 1 2.</_></rects>
      <tilted>0</tilted></_>
    <_>
      <rects>
        <_>
          4 2 20 2 -1.</_>
        <_>
          4 2 10 1 2.</_>
        <_>
          14 3 10 1 2.</_></rects>
      <tilted>0</tilted></_>
    <_>
      <rects>
        <_>
          4 5 16 2 -1.</_>
        <_>
          4 6 16 1 2.</_></rects>
      <tilted>0</tilted></_>
    <_>
      <rects>
        <_>
          4 6 20 9 -1.</_>
        <_>
          14 6 10 9 2.</_></rects>
      <tilted>0</tilted></_>
    <_>
      <rects>
        <_>
          4 7 4 2 -1.</_>
        <_>
          4 7 2 1 2.</_>
        <_>
          6 8 2 1 2.</_></rects>
      <tilted>0</tilted></_>
    <_>
      <rects>
        <_>
          4 7 18 2 -1.</_>
        <_>
          4 7 9 1 2.</_>
        <_>
          13 8 9 1 2.</_></rects>
      <tilted>0</tilted></_>
    <_>
      <rects>
        <_>
          4 20 18 4 -1.</_>
        <_>
          4 22 18 2 2.</_></rects>
      <tilted>0</tilted></_>
    <_>
      <rects>
        <_>
          5 6 14 4 -1.</_>
        <_>
          5 8 14 2 2.</_></rects>
      <tilted>0</tilted></_>
    <_>
      <rects>
        <_>
          5 13 2 10 -1.</_>
        <_>
          5 13 1 5 2.</_>
        <_>
          6 18 1 5 2.</_></rects>
      <tilted>0</tilted></_>
    <_>
      <rects>
        <_>
          5 16 19 6 -1.</_>
        <_>
          5 18 19 2 2.</_></rects>
      <tilted>0</tilted></_>
    <_>
      <rects>
        <_>
          5 22 11 2 -1.</_>
        <_>
          5 23 11 1 2.</_></rects>
      <tilted>0</tilted></_>
    <_>
      <rects>
        <_>
          5 22 13 2 -1.</_>
        <_>
          5 23 13 1 2.</_></rects>
      <tilted>0</tilted></_>
    <_>
      <rects>
        <_>
          5 22 14 2 -1.</_>
        <_>
          5 23 14 1 2.</_></rects>
      <tilted>0</tilted></_>
    <_>
      <rects>
        <_>
          5 22 15 2 -1.</_>
        <_>
          5 23 15 1 2.</_></rects>
      <tilted>0</tilted></_>
    <_>
      <rects>
        <_>
          5 22 16 2 -1.</_>
        <_>
          5 23 16 1 2.</_></rects>
      <tilted>0</tilted></_>
    <_>
      <rects>
        <_>
          6 0 2 1 -1.</_>
        <_>
          7 0 1 1 2.</_></rects>
      <tilted>0</tilted></_>
    <_>
      <rects>
        <_>
          6 4 1 2 -1.</_>
        <_>
          6 5 1 1 2.</_></rects>
      <tilted>0</tilted></_>
    <_>
      <rects>
        <_>
          6 5 5 2 -1.</_>
        <_>
          6 6 5 1 2.</_></rects>
      <tilted>0</tilted></_>
    <_>
      <rects>
        <_>
          6 5 16 2 -1.</_>
        <_>
          6 5 8 1 2.</_>
        <_>
          14 6 8 1 2.</_></rects>
      <tilted>0</tilted></_>
    <_>
      <rects>
        <_>
          6 8 11 2 -1.</_>
        <_>
          6 9 11 1 2.</_></rects>
      <tilted>0</tilted></_>
    <_>
      <rects>
        <_>
          7 1 2 14 -1.</_>
        <_>
          7 1 1 7 2.</_>
        <_>
          8 8 1 7 2.</_></rects>
      <tilted>0</tilted></_>
    <_>
      <rects>
        <_>
          7 5 5 2 -1.</_>
        <_>
          7 6 5 1 2.</_></rects>
      <tilted>0</tilted></_>
    <_>
      <rects>
        <_>
          7 15 2 5 -1.</_>
        <_>
          8 15 1 5 2.</_></rects>
      <tilted>0</tilted></_>
    <_>
      <rects>
        <_>
          7 18 2 6 -1.</_>
        <_>
          8 18 1 6 2.</_></rects>
      <tilted>0</tilted></_>
    <_>
      <rects>
        <_>
          7 22 16 1 -1.</_>
        <_>
          15 22 8 1 2.</_></rects>
      <tilted>0</tilted></_>
    <_>
      <rects>
        <_>
          7 22 17 2 -1.</_>
        <_>
          7 23 17 1 2.</_></rects>
      <tilted>0</tilted></_>
    <_>
      <rects>
        <_>
          8 0 5 24 -1.</_>
        <_>
          8 12 5 12 2.</_></rects>
      <tilted>0</tilted></_>
    <_>
      <rects>
        <_>
          8 1 6 6 -1.</_>
        <_>
          8 1 3 3 2.</_>
        <_>
          11 4 3 3 2.</_></rects>
      <tilted>0</tilted></_>
    <_>
      <rects>
        <_>
          8 2 6 1 -1.</_>
        <_>
          11 2 3 1 2.</_></rects>
      <tilted>0</tilted></_>
    <_>
      <rects>
        <_>
          8 5 12 2 -1.</_>
        <_>
          8 5 6 1 2.</_>
        <_>
          14 6 6 1 2.</_></rects>
      <tilted>0</tilted></_>
    <_>
      <rects>
        <_>
          8 7 2 15 -1.</_>
        <_>
          9 7 1 15 2.</_></rects>
      <tilted>0</tilted></_>
    <_>
      <rects>
        <_>
          8 7 5 2 -1.</_>
        <_>
          8 8 5 1 2.</_></rects>
      <tilted>0</tilted></_>
    <_>
      <rects>
        <_>
          8 13 12 4 -1.</_>
        <_>
          8 13 6 2 2.</_>
        <_>
          14 15 6 2 2.</_></rects>
      <tilted>0</tilted></_>
    <_>
      <rects>
        <_>
          8 14 4 9 -1.</_>
        <_>
          8 17 4 3 2.</_></rects>
      <tilted>0</tilted></_>
    <_>
      <rects>
        <_>
          8 18 6 1 -1.</_>
        <_>
          10 18 2 1 2.</_></rects>
      <tilted>0</tilted></_>
    <_>
      <rects>
        <_>
          8 20 3 1 -1.</_>
        <_>
          9 20 1 1 2.</_></rects>
      <tilted>0</tilted></_>
    <_>
      <rects>
        <_>
          9 5 2 1 -1.</_>
        <_>
          10 5 1 1 2.</_></rects>
      <tilted>0</tilted></_>
    <_>
      <rects>
        <_>
          9 6 7 2 -1.</_>
        <_>
          9 7 7 1 2.</_></rects>
      <tilted>0</tilted></_>
    <_>
      <rects>
        <_>
          9 8 2 12 -1.</_>
        <_>
          9 14 2 6 2.</_></rects>
      <tilted>0</tilted></_>
    <_>
      <rects>
        <_>
          9 8 3 2 -1.</_>
        <_>
          9 9 3 1 2.</_></rects>
      <tilted>0</tilted></_>
    <_>
      <rects>
        <_>
          9 17 1 2 -1.</_>
        <_>
          9 18 1 1 2.</_></rects>
      <tilted>0</tilted></_>
    <_>
      <rects>
        <_>
          9 20 3 3 -1.</_>
        <_>
          10 20 1 3 2.</_></rects>
      <tilted>0</tilted></_>
    <_>
      <rects>
        <_>
          9 21 6 2 -1.</_>
        <_>
          11 21 2 2 2.</_></rects>
      <tilted>0</tilted></_>
    <_>
      <rects>
        <_>
          10 5 7 2 -1.</_>
        <_>
          10 6 7 1 2.</_></rects>
      <tilted>0</tilted></_>
    <_>
      <rects>
        <_>
          10 10 14 14 -1.</_>
        <_>
          10 10 7 7 2.</_>
        <_>
          17 17 7 7 2.</_></rects>
      <tilted>0</tilted></_>
    <_>
      <rects>
        <_>
          10 16 2 2 -1.</_>
        <_>
          10 17 2 1 2.</_></rects>
      <tilted>0</tilted></_>
    <_>
      <rects>
        <_>
          10 17 4 2 -1.</_>
        <_>
          10 17 2 1 2.</_>
        <_>
          12 18 2 1 2.</_></rects>
      <tilted>0</tilted></_>
    <_>
      <rects>
        <_>
          10 19 2 5 -1.</_>
        <_>
          11 19 1 5 2.</_></rects>
      <tilted>0</tilted></_>
    <_>
      <rects>
        <_>
          10 20 3 2 -1.</_>
        <_>
          10 21 3 1 2.</_></rects>
      <tilted>0</tilted></_>
    <_>
      <rects>
        <_>
          10 22 14 2 -1.</_>
        <_>
          10 22 7 1 2.</_>
        <_>
          17 23 7 1 2.</_></rects>
      <tilted>0</tilted></_>
    <_>
      <rects>
        <_>
          11 0 2 18 -1.</_>
        <_>
          11 9 2 9 2.</_></rects>
      <tilted>0</tilted></_>
    <_>
      <rects>
        <_>
          11 5 8 2 -1.</_>
        <_>
          11 5 4 1 2.</_>
        <_>
          15 6 4 1 2.</_></rects>
      <tilted>0</tilted></_>
    <_>
      <rects>
        <_>
          11 8 1 14 -1.</_>
        <_>
          11 15 1 7 2.</_></rects>
      <tilted>0</tilted></_>
    <_>
      <rects>
        <_>
          11 10 2 4 -1.</_>
        <_>
          11 10 1 2 2.</_>
        <_>
          12 12 1 2 2.</_></rects>
      <tilted>0</tilted></_>
    <_>
      <rects>
        <_>
          11 15 1 2 -1.</_>
        <_>
          11 16 1 1 2.</_></rects>
      <tilted>0</tilted></_>
    <_>
      <rects>
        <_>
          11 15 4 1 -1.</_>
        <_>
          13 15 2 1 2.</_></rects>
      <tilted>0</tilted></_>
    <_>
      <rects>
        <_>
          11 19 6 4 -1.</_>
        <_>
          11 21 6 2 2.</_></rects>
      <tilted>0</tilted></_>
    <_>
      <rects>
        <_>
          11 22 4 2 -1.</_>
        <_>
          11 22 2 1 2.</_>
        <_>
          13 23 2 1 2.</_></rects>
      <tilted>0</tilted></_>
    <_>
      <rects>
        <_>
          12 0 8 9 -1.</_>
        <_>
          16 0 4 9 2.</_></rects>
      <tilted>0</tilted></_>
    <_>
      <rects>
        <_>
          12 0 8 6 -1.</_>
        <_>
          12 3 8 3 2.</_></rects>
      <tilted>0</tilted></_>
    <_>
      <rects>
        <_>
          12 4 1 6 -1.</_>
        <_>
          12 7 1 3 2.</_></rects>
      <tilted>0</tilted></_>
    <_>
      <rects>
        <_>
          12 12 2 5 -1.</_>
        <_>
          13 12 1 5 2.</_></rects>
      <tilted>0</tilted></_>
    <_>
      <rects>
        <_>
          12 13 8 8 -1.</_>
        <_>
          12 13 4 4 2.</_>
        <_>
          16 17 4 4 2.</_></rects>
      <tilted>0</tilted></_>
    <_>
      <rects>
        <_>
          12 20 8 4 -1.</_>
        <_>
          12 20 4 2 2.</_>
        <_>
          16 22 4 2 2.</_></rects>
      <tilted>0</tilted></_>
    <_>
      <rects>
        <_>
          13 18 1 2 -1.</_>
        <_>
          13 19 1 1 2.</_></rects>
      <tilted>0</tilted></_>
    <_>
      <rects>
        <_>
          13 20 3 1 -1.</_>
        <_>
          14 20 1 1 2.</_></rects>
      <tilted>0</tilted></_>
    <_>
      <rects>
        <_>
          13 20 3 2 -1.</_>
        <_>
          14 20 1 2 2.</_></rects>
      <tilted>0</tilted></_>
    <_>
      <rects>
        <_>
          13 20 2 2 -1.</_>
        <_>
          13 21 2 1 2.</_></rects>
      <tilted>0</tilted></_>
    <_>
      <rects>
        <_>
          13 20 8 4 -1.</_>
        <_>
          13 20 4 2 2.</_>
        <_>
          17 22 4 2 2.</_></rects>
      <tilted>0</tilted></_>
    <_>
      <rects>
        <_>
          14 0 10 24 -1.</_>
        <_>
          14 12 10 12 2.</_></rects>
      <tilted>0</tilted></_>
    <_>
      <rects>
        <_>
          14 3 2 2 -1.</_>
        <_>
          14 3 1 1 2.</_>
        <_>
          15 4 1 1 2.</_></rects>
      <tilted>0</tilted></_>
    <_>
      <rects>
        <_>
          14 7 1 2 -1.</_>
        <_>
          14 8 1 1 2.</_></rects>
      <tilted>0</tilted></_>
    <_>
      <rects>
        <_>
          14 10 2 2 -1.</_>
        <_>
          14 10 1 1 2.</_>
        <_>
          15 11 1 1 2.</_></rects>
      <tilted>0</tilted></_>
    <_>
      <rects>
        <_>
          14 15 9 2 -1.</_>
        <_>
          14 16 9 1 2.</_></rects>
      <tilted>0</tilted></_>
    <_>
      <rects>
        <_>
          14 20 7 4 -1.</_>
        <_>
          14 22 7 2 2.</_></rects>
      <tilted>0</tilted></_>
    <_>
      <rects>
        <_>
          15 1 4 18 -1.</_>
        <_>
          15 1 2 9 2.</_>
        <_>
          17 10 2 9 2.</_></rects>
      <tilted>0</tilted></_>
    <_>
      <rects>
        <_>
          15 6 8 16 -1.</_>
        <_>
          19 6 4 16 2.</_></rects>
      <tilted>0</tilted></_>
    <_>
      <rects>
        <_>
          15 13 2 2 -1.</_>
        <_>
          15 13 1 1 2.</_>
        <_>
          16 14 1 1 2.</_></rects>
      <tilted>0</tilted></_>
    <_>
      <rects>
        <_>
          15 13 1 4 -1.</_>
        <_>
          15 15 1 2 2.</_></rects>
      <tilted>0</tilted></_>
    <_>
      <rects>
        <_>
          16 2 2 4 -1.</_>
        <_>
          16 4 2 2 2.</_></rects>
      <tilted>0</tilted></_>
    <_>
      <rects>
        <_>
          16 15 8 6 -1.</_>
        <_>
          20 15 4 6 2.</_></rects>
      <tilted>0</tilted></_>
    <_>
      <rects>
        <_>
          16 18 4 6 -1.</_>
        <_>
          16 20 4 2 2.</_></rects>
      <tilted>0</tilted></_>
    <_>
      <rects>
        <_>
          17 0 4 12 -1.</_>
        <_>
          17 4 4 4 2.</_></rects>
      <tilted>0</tilted></_>
    <_>
      <rects>
        <_>
          17 1 2 2 -1.</_>
        <_>
          17 1 1 1 2.</_>
        <_>
          18 2 1 1 2.</_></rects>
      <tilted>0</tilted></_>
    <_>
      <rects>
        <_>
          17 1 4 3 -1.</_>
        <_>
          19 1 2 3 2.</_></rects>
      <tilted>0</tilted></_>
    <_>
      <rects>
        <_>
          17 1 3 2 -1.</_>
        <_>
          17 2 3 1 2.</_></rects>
      <tilted>0</tilted></_>
    <_>
      <rects>
        <_>
          17 2 4 6 -1.</_>
        <_>
          17 5 4 3 2.</_></rects>
      <tilted>0</tilted></_>
    <_>
      <rects>
        <_>
          17 22 6 1 -1.</_>
        <_>
          19 22 2 1 2.</_></rects>
      <tilted>0</tilted></_>
    <_>
      <rects>
        <_>
          18 0 4 12 -1.</_>
        <_>
          20 0 2 12 2.</_></rects>
      <tilted>0</tilted></_>
    <_>
      <rects>
        <_>
          18 1 3 8 -1.</_>
        <_>
          18 5 3 4 2.</_></rects>
      <tilted>0</tilted></_>
    <_>
      <rects>
        <_>
          18 13 2 8 -1.</_>
        <_>
          18 13 1 4 2.</_>
        <_>
          19 17 1 4 2.</_></rects>
      <tilted>0</tilted></_>
    <_>
      <rects>
        <_>
          18 16 2 6 -1.</_>
        <_>
          18 16 1 3 2.</_>
        <_>
          19 19 1 3 2.</_></rects>
      <tilted>0</tilted></_>
    <_>
      <rects>
        <_>
          18 17 2 6 -1.</_>
        <_>
          18 17 1 3 2.</_>
        <_>
          19 20 1 3 2.</_></rects>
      <tilted>0</tilted></_>
    <_>
      <rects>
        <_>
          19 0 2 1 -1.</_>
        <_>
          20 0 1 1 2.</_></rects>
      <tilted>0</tilted></_>
    <_>
      <rects>
        <_>
          19 2 2 22 -1.</_>
        <_>
          19 2 1 11 2.</_>
        <_>
          20 13 1 11 2.</_></rects>
      <tilted>0</tilted></_>
    <_>
      <rects>
        <_>
          19 2 2 4 -1.</_>
        <_>
          19 4 2 2 2.</_></rects>
      <tilted>0</tilted></_>
    <_>
      <rects>
        <_>
          19 3 2 6 -1.</_>
        <_>
          19 3 1 3 2.</_>
        <_>
          20 6 1 3 2.</_></rects>
      <tilted>0</tilted></_>
    <_>
      <rects>
        <_>
          19 4 2 4 -1.</_>
        <_>
          19 6 2 2 2.</_></rects>
      <tilted>0</tilted></_>
    <_>
      <rects>
        <_>
          19 9 2 8 -1.</_>
        <_>
          19 9 1 4 2.</_>
        <_>
          20 13 1 4 2.</_></rects>
      <tilted>0</tilted></_>
    <_>
      <rects>
        <_>
          19 16 4 4 -1.</_>
        <_>
          19 18 4 2 2.</_></rects>
      <tilted>0</tilted></_>
    <_>
      <rects>
        <_>
          20 0 2 13 -1.</_>
        <_>
          21 0 1 13 2.</_></rects>
      <tilted>0</tilted></_>
    <_>
      <rects>
        <_>
          20 0 4 20 -1.</_>
        <_>
          20 0 2 10 2.</_>
        <_>
          22 10 2 10 2.</_></rects>
      <tilted>0</tilted></_>
    <_>
      <rects>
        <_>
          20 0 4 22 -1.</_>
        <_>
          20 0 2 11 2.</_>
        <_>
          22 11 2 11 2.</_></rects>
      <tilted>0</tilted></_>
    <_>
      <rects>
        <_>
          20 1 4 20 -1.</_>
        <_>
          20 1 2 10 2.</_>
        <_>
          22 11 2 10 2.</_></rects>
      <tilted>0</tilted></_>
    <_>
      <rects>
        <_>
          20 5 3 4 -1.</_>
        <_>
          21 5 1 4 2.</_></rects>
      <tilted>0</tilted></_>
    <_>
      <rects>
        <_>
          20 6 2 2 -1.</_>
        <_>
          20 6 1 1 2.</_>
        <_>
          21 7 1 1 2.</_></rects>
      <tilted>0</tilted></_>
    <_>
      <rects>
        <_>
          20 12 4 12 -1.</_>
        <_>
          20 12 2 6 2.</_>
        <_>
          22 18 2 6 2.</_></rects>
      <tilted>0</tilted></_>
    <_>
      <rects>
        <_>
          21 0 2 18 -1.</_>
        <_>
          21 0 1 9 2.</_>
        <_>
          22 9 1 9 2.</_></rects>
      <tilted>0</tilted></_>
    <_>
      <rects>
        <_>
          21 2 1 21 -1.</_>
        <_>
          21 9 1 7 2.</_></rects>
      <tilted>0</tilted></_>
    <_>
      <rects>
        <_>
          21 8 1 3 -1.</_>
        <_>
          21 9 1 1 2.</_></rects>
      <tilted>0</tilted></_>
    <_>
      <rects>
        <_>
          21 12 2 8 -1.</_>
        <_>
          21 12 1 4 2.</_>
        <_>
          22 16 1 4 2.</_></rects>
      <tilted>0</tilted></_>
    <_>
      <rects>
        <_>
          22 0 2 10 -1.</_>
        <_>
          23 0 1 10 2.</_></rects>
      <tilted>0</tilted></_>
    <_>
      <rects>
        <_>
          22 0 2 12 -1.</_>
        <_>
          23 0 1 12 2.</_></rects>
      <tilted>0</tilted></_>
    <_>
      <rects>
        <_>
          22 0 2 15 -1.</_>
        <_>
          23 0 1 15 2.</_></rects>
      <tilted>0</tilted></_>
    <_>
      <rects>
        <_>
          22 1 2 21 -1.</_>
        <_>
          23 1 1 21 2.</_></rects>
      <tilted>0</tilted></_>
    <_>
      <rects>
        <_>
          22 1 2 3 -1.</_>
        <_>
          22 2 2 1 2.</_></rects>
      <tilted>0</tilted></_>
    <_>
      <rects>
        <_>
          22 2 2 10 -1.</_>
        <_>
          22 2 1 5 2.</_>
        <_>
          23 7 1 5 2.</_></rects>
      <tilted>0</tilted></_>
    <_>
      <rects>
        <_>
          22 2 2 9 -1.</_>
        <_>
          23 2 1 9 2.</_></rects>
      <tilted>0</tilted></_>
    <_>
      <rects>
        <_>
          22 2 2 10 -1.</_>
        <_>
          23 2 1 10 2.</_></rects>
      <tilted>0</tilted></_>
    <_>
      <rects>
        <_>
          22 2 2 2 -1.</_>
        <_>
          22 3 2 1 2.</_></rects>
      <tilted>0</tilted></_>
    <_>
      <rects>
        <_>
          22 3 2 9 -1.</_>
        <_>
          23 3 1 9 2.</_></rects>
      <tilted>0</tilted></_>
    <_>
      <rects>
        <_>
          22 5 2 8 -1.</_>
        <_>
          23 5 1 8 2.</_></rects>
      <tilted>0</tilted></_>
    <_>
      <rects>
        <_>
          22 7 2 8 -1.</_>
        <_>
          23 7 1 8 2.</_></rects>
      <tilted>0</tilted></_>
    <_>
      <rects>
        <_>
          22 8 2 5 -1.</_>
        <_>
          23 8 1 5 2.</_></rects>
      <tilted>0</tilted></_>
    <_>
      <rects>
        <_>
          22 8 2 6 -1.</_>
        <_>
          23 8 1 6 2.</_></rects>
      <tilted>0</tilted></_>
    <_>
      <rects>
        <_>
          23 5 1 2 -1.</_>
        <_>
          23 6 1 1 2.</_></rects>
      <tilted>0</tilted></_>
    <_>
      <rects>
        <_>
          23 15 1 2 -1.</_>
        <_>
          23 16 1 1 2.</_></rects>
      <tilted>0</tilted></_>
    <_>
      <rects>
        <_>
          23 22 1 2 -1.</_>
        <_>
          23 23 1 1 2.</_></rects>
      <tilted>0</tilted></_></features></cascade>
</opencv_storage>
